<?xml version="1.0"?>
<opencv_storage>
<stage31>
  <maxWeakCount>9</maxWeakCount>
  <stageThreshold>-7.6401382684707642e-01</stageThreshold>
  <weakClassifiers>
    <_>
      <internalNodes>
        0 -1 14947 -1040050685 67174913 86275 672793345 25503239
        335646985 -2063400063 1052262788</internalNodes>
      <leafValues>
        -6.6274511814117432e-01 4.2304831743240356e-01</leafValues></_>
    <_>
      <internalNodes>
        0 -1 18327 580631545 -1964015484 -1610018793 -1374973311
        -2101247971 951095323 1679818958 -1194331445</internalNodes>
      <leafValues>
        -4.8703733086585999e-01 3.6774414777755737e-01</leafValues></_>
    <_>
      <internalNodes>
        0 -1 12641 -1301315335 -1692274716 1996357429 -1112224432
        -806089529 -583020849 -277946371 -52660331</internalNodes>
      <leafValues>
        -3.4081846475601196e-01 5.8517062664031982e-01</leafValues></_>
    <_>
      <internalNodes>
        0 -1 6666 -792671921 1950450435 163848 1900087810 1086701702
        -1132298238 1246511178 1516740655</internalNodes>
      <leafValues>
        -5.8788907527923584e-01 3.2830074429512024e-01</leafValues></_>
    <_>
      <internalNodes>
        0 -1 19692 1380432988 1485758890 134422872 -108330896
        -1341615151 92809263 -930246268 1611133614</internalNodes>
      <leafValues>
        -4.5952078700065613e-01 4.1918262839317322e-01</leafValues></_>
    <_>
      <internalNodes>
        0 -1 20732 -708325237 -758464571 252264192 301823551 -620823623
        -979012899 1482024475 1427580843</internalNodes>
      <leafValues>
        -3.8243764638900757e-01 5.7838529348373413e-01</leafValues></_>
    <_>
      <internalNodes>
        0 -1 12241 -1339007599 189399570 83895353 -1912599485 8559361
        -1985441759 -2088567270 -1034199543</internalNodes>
      <leafValues>
        -4.7256973385810852e-01 4.3518158793449402e-01</leafValues></_>
    <_>
      <internalNodes>
        0 -1 15820 -1252567555 -1001125852 -939498431 -587202303
        -2147454912 -938604543 1615107142 -896790911</internalNodes>
      <leafValues>
        -5.3756397962570190e-01 3.8453096151351929e-01</leafValues></_>
    <_>
      <internalNodes>
        0 -1 11890 2015400002 1075314824 806207490 352715013 1946189971
        -2096987120 421804712 394735695</internalNodes>
      <leafValues>
        -5.3749227523803711e-01 4.2497473955154419e-01</leafValues></_></weakClassifiers></stage31>
</opencv_storage>
