<?xml version="1.0"?>
<opencv_storage>
<stage38>
  <maxWeakCount>10</maxWeakCount>
  <stageThreshold>-6.3493108749389648e-01</stageThreshold>
  <weakClassifiers>
    <_>
      <internalNodes>
        0 -1 14372 -1288479045 -1913722884 -536870913 1291780259
        -302088380 -1929412747 -134217857 880244593</internalNodes>
      <leafValues>
        -4.3005180358886719e-01 4.6622735261917114e-01</leafValues></_>
    <_>
      <internalNodes>
        0 -1 14970 -1343300558 -16974152 -33652993 -1118438168
        -173934596 -1028296842 -1660789762 -1343524981</internalNodes>
      <leafValues>
        -2.5782155990600586e-01 6.1419612169265747e-01</leafValues></_>
    <_>
      <internalNodes>
        0 -1 14109 -2111207036 421529894 436406539 -989519611 848396296
        -239919053 -1463805558 -519469015</internalNodes>
      <leafValues>
        -4.7974500060081482e-01 3.4911549091339111e-01</leafValues></_>
    <_>
      <internalNodes>
        0 -1 19282 1293215643 -1151177078 978222501 1917168916
        -353777424 -952846339 -1738219846 -741914117</internalNodes>
      <leafValues>
        -2.8934371471405029e-01 6.1492663621902466e-01</leafValues></_>
    <_>
      <internalNodes>
        0 -1 19170 -280767253 -499117936 269075626 1820491776 268468994
        220400041 186812627 1320559455</internalNodes>
      <leafValues>
        -6.1827856302261353e-01 3.0995738506317139e-01</leafValues></_>
    <_>
      <internalNodes>
        0 -1 8669 -1042539465 -201331161 528164762 1971088107 1073444287
        -1879359534 939405117 -135319561</internalNodes>
      <leafValues>
        -3.9319476485252380e-01 4.9088042974472046e-01</leafValues></_>
    <_>
      <internalNodes>
        0 -1 17920 356798700 1686151632 -2147446783 -1086250739
        -2029464415 52756491 1051525274 521908379</internalNodes>
      <leafValues>
        -4.8462435603141785e-01 4.0309113264083862e-01</leafValues></_>
    <_>
      <internalNodes>
        0 -1 224 -1870337108 -248994802 606676 469824128 1074381812
        1090748962 -1874481022 -1049725128</internalNodes>
      <leafValues>
        -5.6333142518997192e-01 3.7952423095703125e-01</leafValues></_>
    <_>
      <internalNodes>
        0 -1 12677 -144450913 503971697 -271712521 -22202642 -435724818
        -1344409601 681607039 -1440593025</internalNodes>
      <leafValues>
        -3.5346969962120056e-01 6.0203588008880615e-01</leafValues></_>
    <_>
      <internalNodes>
        0 -1 20780 2015885737 -783555728 125048805 -680677896
        -1353210206 -1582096644 1595344658 -1213869861</internalNodes>
      <leafValues>
        -2.6999172568321228e-01 6.9112783670425415e-01</leafValues></_></weakClassifiers></stage38>
</opencv_storage>
