<?xml version="1.0"?>
<opencv_storage>
<stage30>
  <maxWeakCount>10</maxWeakCount>
  <stageThreshold>-9.5445519685745239e-01</stageThreshold>
  <weakClassifiers>
    <_>
      <internalNodes>
        0 -1 17614 19334282 -2130492909 302485513 -1006612461
        -1071623038 621232257 -98413824 -1936394097</internalNodes>
      <leafValues>
        -5.1724135875701904e-01 4.6325877308845520e-01</leafValues></_>
    <_>
      <internalNodes>
        0 -1 10256 -2085793702 1162613198 285802844 -1683849015
        -1962924920 -1827667310 1208571099 -223901946</internalNodes>
      <leafValues>
        -4.7003182768821716e-01 3.7658900022506714e-01</leafValues></_>
    <_>
      <internalNodes>
        0 -1 8669 1415400343 -201380241 -1904597217 -444761361
        -1208453641 1609186897 1072999095 -202690569</internalNodes>
      <leafValues>
        -3.0626982450485229e-01 5.7138586044311523e-01</leafValues></_>
    <_>
      <internalNodes>
        0 -1 6250 -1815876773 -1852702584 293929301 1350680922
        -1610076086 -1199439469 -1744127023 1494458427</internalNodes>
      <leafValues>
        -4.3596667051315308e-01 4.0087559819221497e-01</leafValues></_>
    <_>
      <internalNodes>
        0 -1 1381 -995100158 -76157264 2129387730 1277213774 932692120
        1047330060 226293407 1896321883</internalNodes>
      <leafValues>
        -4.2942455410957336e-01 4.9443435668945312e-01</leafValues></_>
    <_>
      <internalNodes>
        0 -1 17207 -1610530465 -2101211111 -2080341693 486645779
        -259935582 -2011660088 -313882477 -2088785265</internalNodes>
      <leafValues>
        -4.2557594180107117e-01 4.5089137554168701e-01</leafValues></_>
    <_>
      <internalNodes>
        0 -1 6042 1074289995 16972034 8431890 -1073704123 24576 24
        -2009028566 -926265215</internalNodes>
      <leafValues>
        -6.5557378530502319e-01 3.1359368562698364e-01</leafValues></_>
    <_>
      <internalNodes>
        0 -1 13324 -1190870663 1376968908 33636405 -1258142720
        -1928691709 -805240703 1157628135 1644923274</internalNodes>
      <leafValues>
        -4.7537079453468323e-01 4.4729140400886536e-01</leafValues></_>
    <_>
      <internalNodes>
        0 -1 20643 -653069589 -904360100 -679561487 188349844
        -1229287286 -1392887534 436015867 -943487556</internalNodes>
      <leafValues>
        -2.9898816347122192e-01 6.9370198249816895e-01</leafValues></_>
    <_>
      <internalNodes>
        0 -1 223 18981804 622741 37312 -1972566012 550355103 -525303667
        -2126337327 -2136050522</internalNodes>
      <leafValues>
        -5.5611848831176758e-01 3.8758254051208496e-01</leafValues></_></weakClassifiers></stage30>
</opencv_storage>
