<?xml version="1.0"?>
<opencv_storage>
<stage10>
  <maxWeakCount>6</maxWeakCount>
  <stageThreshold>-5.2249747514724731e-01</stageThreshold>
  <weakClassifiers>
    <_>
      <internalNodes>
        0 -1 4526 -438836389 1998697217 -880254848 857908770 1353383942
        -481115647 1074398351 1078194795</internalNodes>
      <leafValues>
        -7.0616114139556885e-01 5.9252971410751343e-01</leafValues></_>
    <_>
      <internalNodes>
        0 -1 8610 -612939452 -935264189 -805285886 -1069498365
        2063745309 -1073610463 -629116061 -548524445</internalNodes>
      <leafValues>
        -6.0966879129409790e-01 4.7404086589813232e-01</leafValues></_>
    <_>
      <internalNodes>
        0 -1 11481 1275134467 -666230525 -1575919597 -99146953
        2056331529 1132688905 -98166105 1481568111</internalNodes>
      <leafValues>
        -7.3989993333816528e-01 3.6993840336799622e-01</leafValues></_>
    <_>
      <internalNodes>
        0 -1 6654 683365605 817877494 -336857158 -1493500422 1073705722
        2130313213 2129949942 -218433541</internalNodes>
      <leafValues>
        -5.0115668773651123e-01 5.9688609838485718e-01</leafValues></_>
    <_>
      <internalNodes>
        0 -1 2411 -916901558 537034818 6854 -804781968 1224824950
        2013802554 -402125019 -423919773</internalNodes>
      <leafValues>
        -7.2496432065963745e-01 4.2369741201400757e-01</leafValues></_>
    <_>
      <internalNodes>
        0 -1 17221 -1066923854 76349464 1157714257 -1626865597
        -939489142 -1610055544 721533579 1267407771</internalNodes>
      <leafValues>
        -5.2561807632446289e-01 5.2698200941085815e-01</leafValues></_></weakClassifiers></stage10>
</opencv_storage>
