<?xml version="1.0"?>
<opencv_storage>
<stage36>
  <maxWeakCount>11</maxWeakCount>
  <stageThreshold>-9.2614984512329102e-01</stageThreshold>
  <weakClassifiers>
    <_>
      <internalNodes>
        0 -1 12550 -318353030 -1023393712 17843280 1922052625 -996657846
        269312316 151003600 353428474</internalNodes>
      <leafValues>
        -4.9008497595787048e-01 4.5950281620025635e-01</leafValues></_>
    <_>
      <internalNodes>
        0 -1 13454 -1189867297 -929528637 573586 -914030206 -1874735087
        -184418206 1518375297 1896219265</internalNodes>
      <leafValues>
        -5.1683872938156128e-01 3.1726080179214478e-01</leafValues></_>
    <_>
      <internalNodes>
        0 -1 1191 -1914183593 -43520352 -1933803836 -62866882 -956487492
        -621604880 385738355 -18627798</internalNodes>
      <leafValues>
        -2.6321893930435181e-01 6.6682904958724976e-01</leafValues></_>
    <_>
      <internalNodes>
        0 -1 14067 59851176 -1843723751 1107367342 -249036411 444672014
        1613242667 -1404728744 -2052501480</internalNodes>
      <leafValues>
        -5.5148535966873169e-01 3.0315986275672913e-01</leafValues></_>
    <_>
      <internalNodes>
        0 -1 16366 285215517 806158420 587235611 1888592577 319295752
        -1148174196 -938952309 1254817875</internalNodes>
      <leafValues>
        -4.7126513719558716e-01 4.1124212741851807e-01</leafValues></_>
    <_>
      <internalNodes>
        0 -1 21007 -739647358 1408644278 1055876113 683329577 -467493758
        1884681597 -969413488 923791134</internalNodes>
      <leafValues>
        -4.2051327228546143e-01 4.7332742810249329e-01</leafValues></_>
    <_>
      <internalNodes>
        0 -1 18040 -1072395776 -1185160943 -519565287 -4127359
        -2113361790 1771634818 -1853093852 -747405161</internalNodes>
      <leafValues>
        -4.5486781001091003e-01 4.3563175201416016e-01</leafValues></_>
    <_>
      <internalNodes>
        0 -1 19231 658114430 -1504772013 545456331 1288130826
        -1979678574 -1070431340 411611267 -76595032</internalNodes>
      <leafValues>
        -5.6323462724685669e-01 3.7825095653533936e-01</leafValues></_>
    <_>
      <internalNodes>
        0 -1 63 616957176 1233164288 1090568472 -1382701799 -96328583
        1510031362 -381566670 -627828572</internalNodes>
      <leafValues>
        -5.3682351112365723e-01 3.8669452071189880e-01</leafValues></_>
    <_>
      <internalNodes>
        0 -1 17403 2130947844 -2054084861 -2105499647 1901445185
        1158594691 -618135296 591673681 1443561711</internalNodes>
      <leafValues>
        -4.9632081389427185e-01 4.0915134549140930e-01</leafValues></_>
    <_>
      <internalNodes>
        0 -1 13420 -889161761 1350631639 -2146940928 -461176832
        -2004059646 -1073106905 142606464 -208493904</internalNodes>
      <leafValues>
        -5.7970643043518066e-01 3.6348542571067810e-01</leafValues></_></weakClassifiers></stage36>
</opencv_storage>
