<?xml version="1.0"?>
<opencv_storage>
<stage5>
  <maxWeakCount>6</maxWeakCount>
  <stageThreshold>-1.1107964515686035e+00</stageThreshold>
  <weakClassifiers>
    <_>
      <internalNodes>
        0 -1 10249 -1181688328 -7667726 -327693 -67633160 -16973825
        -196609 922288127 -1191673871</internalNodes>
      <leafValues>
        -4.7957640886306763e-01 7.6357829570770264e-01</leafValues></_>
    <_>
      <internalNodes>
        0 -1 6719 1291852272 -635629323 274792949 -553021363 -2010594835
        -360593240 136349837 1331421392</internalNodes>
      <leafValues>
        -6.7319083213806152e-01 5.6510388851165771e-01</leafValues></_>
    <_>
      <internalNodes>
        0 -1 15095 -1141154310 -42500620 -1074299013 -38372099
        -822149252 -545456785 -1912799491 -1774286597</internalNodes>
      <leafValues>
        -5.4061818122863770e-01 6.5689253807067871e-01</leafValues></_>
    <_>
      <internalNodes>
        0 -1 342 1090637553 979435797 -1023409063 -1656681456
        -1434428744 -1364694871 612378829 -624425832</internalNodes>
      <leafValues>
        -6.0032767057418823e-01 6.1776107549667358e-01</leafValues></_>
    <_>
      <internalNodes>
        0 -1 55 286267480 -1324416832 151601407 -1524727481 -1071595281
        -1449228064 3279101 -1986393916</internalNodes>
      <leafValues>
        -6.0572546720504761e-01 6.2238669395446777e-01</leafValues></_>
    <_>
      <internalNodes>
        0 -1 12453 -2064612470 -40889920 17109665 490767505 13107803
        -1954537344 -1332999973 -1098350400</internalNodes>
      <leafValues>
        -6.4716345071792603e-01 6.0443258285522461e-01</leafValues></_></weakClassifiers></stage5>
</opencv_storage>
