<?xml version="1.0"?>
<opencv_storage>
<stage21>
  <maxWeakCount>9</maxWeakCount>
  <stageThreshold>-6.3964712619781494e-01</stageThreshold>
  <weakClassifiers>
    <_>
      <internalNodes>
        0 -1 17052 22267063 -1610448639 268472705 1481163266 809812235
        -402358016 -1601511294 299108504</internalNodes>
      <leafValues>
        -7.7419352531433105e-01 4.3786981701850891e-01</leafValues></_>
    <_>
      <internalNodes>
        0 -1 9502 -21110993 1348041684 2122178559 1153826814 2130231094
        -1137001968 2147414015 -594219047</internalNodes>
      <leafValues>
        -3.9600858092308044e-01 5.1685756444931030e-01</leafValues></_>
    <_>
      <internalNodes>
        0 -1 13425 -1058684455 -938458905 -2013134707 1359753410
        -2130664448 -668989440 139231649 308609248</internalNodes>
      <leafValues>
        -6.6135454177856445e-01 3.3378264307975769e-01</leafValues></_>
    <_>
      <internalNodes>
        0 -1 17281 1613252767 -1849572990 17933147 1948221746 -92057334
        -1577017343 1616024066 -491079030</internalNodes>
      <leafValues>
        -4.9244853854179382e-01 3.7800493836402893e-01</leafValues></_>
    <_>
      <internalNodes>
        0 -1 18273 -1352402034 -535981820 1141739530 46334464 1099548728
        2025885892 -342920960 -1529531635</internalNodes>
      <leafValues>
        -5.6279128789901733e-01 3.6797681450843811e-01</leafValues></_>
    <_>
      <internalNodes>
        0 -1 16715 1883685075 1578180872 -2147446375 1235988826
        336102600 1888190465 33672195 1929609963</internalNodes>
      <leafValues>
        -4.8145136237144470e-01 4.6890240907669067e-01</leafValues></_>
    <_>
      <internalNodes>
        0 -1 2653 -494171233 -829780376 -270709012 -268964099
        -1442984533 -1833992372 118953935 -820027658</internalNodes>
      <leafValues>
        -3.5513356328010559e-01 6.1012905836105347e-01</leafValues></_>
    <_>
      <internalNodes>
        0 -1 9615 -16821809 -1048583 -1092091918 1599569910 -310622134
        -589835 -1611597987 -17041638</internalNodes>
      <leafValues>
        -3.9781272411346436e-01 5.7178622484207153e-01</leafValues></_>
    <_>
      <internalNodes>
        0 -1 321 1343914194 -1000701660 2097408 -1784573904 282984871
        -1877475176 -1322876524 -527720359</internalNodes>
      <leafValues>
        -5.0133681297302246e-01 4.6339431405067444e-01</leafValues></_></weakClassifiers></stage21>
</opencv_storage>
