<?xml version="1.0"?>
<opencv_storage>
<stage7>
  <maxWeakCount>6</maxWeakCount>
  <stageThreshold>-7.5545132160186768e-01</stageThreshold>
  <weakClassifiers>
    <_>
      <internalNodes>
        0 -1 12531 -1723764517 -1052638759 21661 1531511064 -1870475102
        1073758208 16880347 521079179</internalNodes>
      <leafValues>
        -6.9230771064758301e-01 5.8108109235763550e-01</leafValues></_>
    <_>
      <internalNodes>
        0 -1 12278 427819224 -1727426536 16777217 -15367935 159434890
        -1951792958 -1476228373 -473200633</internalNodes>
      <leafValues>
        -5.2981406450271606e-01 5.9944444894790649e-01</leafValues></_>
    <_>
      <internalNodes>
        0 -1 15695 -161919752 -308261640 -1124270084 -720532388
        -409942392 -722379432 -185346357 -548729841</internalNodes>
      <leafValues>
        -3.9536660909652710e-01 8.0005902051925659e-01</leafValues></_>
    <_>
      <internalNodes>
        0 -1 13420 -33166 -9097218 2147450800 -901286 -1112936926
        2146811716 -1945004046 -1156433990</internalNodes>
      <leafValues>
        -4.8228985071182251e-01 6.1606323719024658e-01</leafValues></_>
    <_>
      <internalNodes>
        0 -1 15000 -1157701892 -33661188 -65540 -773095428 -1078075396
        -185303044 -1615003654 -477372866</internalNodes>
      <leafValues>
        -4.0682145953178406e-01 7.8916311264038086e-01</leafValues></_>
    <_>
      <internalNodes>
        0 -1 20002 -96042880 -666207680 900135554 -604279588 -262825982
        73694806 258395307 996107243</internalNodes>
      <leafValues>
        -4.7646319866180420e-01 6.7301970720291138e-01</leafValues></_></weakClassifiers></stage7>
</opencv_storage>
