<?xml version="1.0"?>
<opencv_storage>
<stage11>
  <maxWeakCount>8</maxWeakCount>
  <stageThreshold>-9.3147182464599609e-01</stageThreshold>
  <weakClassifiers>
    <_>
      <internalNodes>
        0 -1 11317 -1633153894 -1074856450 787414514 -1056782 2124304127
        2141912830 -59449613 -688390153</internalNodes>
      <leafValues>
        -3.9795917272567749e-01 6.2648218870162964e-01</leafValues></_>
    <_>
      <internalNodes>
        0 -1 4830 -2119433573 -2132203511 32802 -1064954992 -1072331769
        2195587 -1597603066 189260965</internalNodes>
      <leafValues>
        -7.8673690557479858e-01 3.7684080004692078e-01</leafValues></_>
    <_>
      <internalNodes>
        0 -1 4953 -1001462387 1677772951 65536 1074806915 -256865731
        4226405 -1064730622 -860952511</internalNodes>
      <leafValues>
        -5.0642406940460205e-01 5.8677655458450317e-01</leafValues></_>
    <_>
      <internalNodes>
        0 -1 15750 -572566275 -1449988 1541341183 -155648780 -1610641929
        -1216876944 -1262568196 -506477318</internalNodes>
      <leafValues>
        -4.0304160118103027e-01 6.8334436416625977e-01</leafValues></_>
    <_>
      <internalNodes>
        0 -1 16545 -1257688609 -1071370045 1140867347 2122977299
        -2113887608 -2140795646 -802652030 -1994741752</internalNodes>
      <leafValues>
        -6.2753713130950928e-01 4.4590413570404053e-01</leafValues></_>
    <_>
      <internalNodes>
        0 -1 13360 -950296 -134676484 -75702276 1467809616 -12650640
        -168526476 1595078512 -778070882</internalNodes>
      <leafValues>
        -4.7925186157226562e-01 6.0521531105041504e-01</leafValues></_>
    <_>
      <internalNodes>
        0 -1 8909 -1191683725 31365883 1929182969 1023310838 1073575253
        2147442687 -671132553 -604020737</internalNodes>
      <leafValues>
        -4.5388388633728027e-01 6.7356520891189575e-01</leafValues></_>
    <_>
      <internalNodes>
        0 -1 20872 -650931670 1175517856 1862037288 -1745388103
        -1758215357 397408244 2001067878 1345295418</internalNodes>
      <leafValues>
        -4.7874641418457031e-01 6.2920570373535156e-01</leafValues></_></weakClassifiers></stage11>
</opencv_storage>
