<?xml version="1.0"?>
<opencv_storage>
<stage34>
  <maxWeakCount>10</maxWeakCount>
  <stageThreshold>-7.4563950300216675e-01</stageThreshold>
  <weakClassifiers>
    <_>
      <internalNodes>
        0 -1 18343 9440664 176399048 -805306358 43912392 -1409120390
        -33520111 178528260 680430285</internalNodes>
      <leafValues>
        -6.1654132604598999e-01 4.2278861999511719e-01</leafValues></_>
    <_>
      <internalNodes>
        0 -1 7557 -655950159 -1155809392 -419463465 -590872579
        -574874950 -1146749006 -730436283 -597231651</internalNodes>
      <leafValues>
        -3.0217576026916504e-01 5.1717799901962280e-01</leafValues></_>
    <_>
      <internalNodes>
        0 -1 17135 -1216286241 -393028104 553816509 -591394176
        -1677540509 1073922048 -1442504560 -844003190</internalNodes>
      <leafValues>
        -4.0225082635879517e-01 4.1250973939895630e-01</leafValues></_>
    <_>
      <internalNodes>
        0 -1 10302 847646943 -1853095801 84017283 -712572790 -1849161073
        -390201151 277658315 1894025223</internalNodes>
      <leafValues>
        -4.3407413363456726e-01 3.9421847462654114e-01</leafValues></_>
    <_>
      <internalNodes>
        0 -1 14158 1689298058 -1628504352 2130575343 -841359891
        536082295 -998899972 112694343 -544536873</internalNodes>
      <leafValues>
        -3.6146575212478638e-01 5.2807396650314331e-01</leafValues></_>
    <_>
      <internalNodes>
        0 -1 6285 -1474741932 1584656244 511491690 -243438268 369037715
        -543391809 1434389497 -73445211</internalNodes>
      <leafValues>
        -4.0728276968002319e-01 4.8555642366409302e-01</leafValues></_>
    <_>
      <internalNodes>
        0 -1 8821 -985754966 1731404996 1055382681 1957809149
        -1643331778 -409713193 -976031156 -1848649793</internalNodes>
      <leafValues>
        -3.3720535039901733e-01 5.9416162967681885e-01</leafValues></_>
    <_>
      <internalNodes>
        0 -1 20298 -2013215542 -532635628 1233129481 1546060033
        134281280 1344292642 2023934495 319758504</internalNodes>
      <leafValues>
        -5.1402848958969116e-01 4.2153570055961609e-01</leafValues></_>
    <_>
      <internalNodes>
        0 -1 16618 238705799 -701748440 1606152055 967829502 -461498641
        -1352720907 -190285458 -1117000561</internalNodes>
      <leafValues>
        -3.9619392156600952e-01 5.2946519851684570e-01</leafValues></_>
    <_>
      <internalNodes>
        0 -1 18796 472548830 -2147418015 134235478 -2137009782
        -1333681531 -2144845743 -1233114958 -404764018</internalNodes>
      <leafValues>
        -4.4257819652557373e-01 4.5251575112342834e-01</leafValues></_></weakClassifiers></stage34>
</opencv_storage>
