<?xml version="1.0"?>
<opencv_storage>
<stage19>
  <maxWeakCount>9</maxWeakCount>
  <stageThreshold>-1.3624951839447021e+00</stageThreshold>
  <weakClassifiers>
    <_>
      <internalNodes>
        0 -1 12580 -41729 2147450876 -2008014855 -180228 -5021868
        -18006044 -577392396 472923836</internalNodes>
      <leafValues>
        -4.2543858289718628e-01 5.1923078298568726e-01</leafValues></_>
    <_>
      <internalNodes>
        0 -1 1537 -514663011 -720240122 -1693938428 1100736643
        -989803243 -1407186149 -366507097 1990192013</internalNodes>
      <leafValues>
        -4.2034173011779785e-01 4.8608118295669556e-01</leafValues></_>
    <_>
      <internalNodes>
        0 -1 14862 -936377912 -1828192232 -1610530456 1090850817
        1075019784 -1173880541 -1735874517 -1524555773</internalNodes>
      <leafValues>
        -5.7746183872222900e-01 3.5179200768470764e-01</leafValues></_>
    <_>
      <internalNodes>
        0 -1 14392 -2125315879 -1722843120 -922119935 92487744 859855899
        -1064269696 -1433155605 1837272738</internalNodes>
      <leafValues>
        -5.4969310760498047e-01 3.7878096103668213e-01</leafValues></_>
    <_>
      <internalNodes>
        0 -1 6839 -1385648647 1309556223 1483910896 -13434947 2147121146
        1062731766 -1082352137 -547117841</internalNodes>
      <leafValues>
        -3.8522496819496155e-01 5.4605323076248169e-01</leafValues></_>
    <_>
      <internalNodes>
        0 -1 2459 -990120022 788000763 -822214658 -285310995 -318990672
        2113929215 -917931672 -462831628</internalNodes>
      <leafValues>
        -4.2932265996932983e-01 5.1879370212554932e-01</leafValues></_>
    <_>
      <internalNodes>
        0 -1 15725 -2012995088 -561282560 4642 -753716480 -2143247912
        -1993832240 -1987919448 -173152022</internalNodes>
      <leafValues>
        -4.7467702627182007e-01 4.5946589112281799e-01</leafValues></_>
    <_>
      <internalNodes>
        0 -1 1450 8925388 1409843344 1098940673 826753048 881033936
        1158193152 1644274347 1107525771</internalNodes>
      <leafValues>
        -5.6830060482025146e-01 4.1166028380393982e-01</leafValues></_>
    <_>
      <internalNodes>
        0 -1 13134 -1725281025 502853599 -65545 -8201 -4293481
        -1087504397 -29425677 -1124204557</internalNodes>
      <leafValues>
        -4.0381786227226257e-01 5.7517963647842407e-01</leafValues></_></weakClassifiers></stage19>
</opencv_storage>
