<?xml version="1.0"?>
<opencv_storage>
<stage16>
  <maxWeakCount>9</maxWeakCount>
  <stageThreshold>-7.4708557128906250e-01</stageThreshold>
  <weakClassifiers>
    <_>
      <internalNodes>
        0 -1 14130 1979711487 -1221066753 -1 1006587905 -570438145
        1610612735 -973113857 -1414003588</internalNodes>
      <leafValues>
        -4.7698745131492615e-01 5.5971479415893555e-01</leafValues></_>
    <_>
      <internalNodes>
        0 -1 15820 -1241874437 -579174607 -32963 -139315403 -1895909633
        -1896349827 494845945 -805651335</internalNodes>
      <leafValues>
        -3.9303207397460938e-01 5.4945492744445801e-01</leafValues></_>
    <_>
      <internalNodes>
        0 -1 9070 67785974 353771678 286778380 -1123905470 -1877305208
        -918396246 1652568995 -676080697</internalNodes>
      <leafValues>
        -5.5695754289627075e-01 4.2279586195945740e-01</leafValues></_>
    <_>
      <internalNodes>
        0 -1 15750 -774565700 -620691450 1073760272 -478117680
        -2097051221 -1609661790 -1584422240 546111728</internalNodes>
      <leafValues>
        -7.7762699127197266e-01 2.8146415948867798e-01</leafValues></_>
    <_>
      <internalNodes>
        0 -1 11573 -22221902 1912118188 1279249180 1296866820 -8398851
        -1090895960 -32771 -570585199</internalNodes>
      <leafValues>
        -4.8086518049240112e-01 5.2793812751770020e-01</leafValues></_>
    <_>
      <internalNodes>
        0 -1 9744 -1711217581 268751368 -1975517167 -1054162432
        1509976716 998834353 144973848 1301774720</internalNodes>
      <leafValues>
        -6.0260325670242310e-01 3.9432367682456970e-01</leafValues></_>
    <_>
      <internalNodes>
        0 -1 18211 -82378317 -2138979823 268454171 1679267865 553648778
        948443776 -2138987520 -381494198</internalNodes>
      <leafValues>
        -4.6358543634414673e-01 5.0042879581451416e-01</leafValues></_>
    <_>
      <internalNodes>
        0 -1 8829 -136857354 -725686179 1720498684 1365861693
        -1221280334 -1255533993 -1835159621 1466898251</internalNodes>
      <leafValues>
        -3.9290413260459900e-01 6.2404435873031616e-01</leafValues></_>
    <_>
      <internalNodes>
        0 -1 10693 601247947 -805216236 1124401289 -703741935 -159248376
        -2121760752 813754626 -29070687</internalNodes>
      <leafValues>
        -6.0230922698974609e-01 4.4596952199935913e-01</leafValues></_></weakClassifiers></stage16>
</opencv_storage>
