<?xml version="1.0"?>
<opencv_storage>
<stage24>
  <maxWeakCount>8</maxWeakCount>
  <stageThreshold>-5.3191941976547241e-01</stageThreshold>
  <weakClassifiers>
    <_>
      <internalNodes>
        0 -1 18299 -1346371605 -1364464902 -1090519041 -1393086729
        -553701465 -1090650498 2113920615 -1905529089</internalNodes>
      <leafValues>
        -3.9321357011795044e-01 5.4322111606597900e-01</leafValues></_>
    <_>
      <internalNodes>
        0 -1 12550 -442545793 -1828650999 1074073996 -259719160
        -931044494 1222773102 -2147442496 -215958802</internalNodes>
      <leafValues>
        -5.0166219472885132e-01 3.9755076169967651e-01</leafValues></_>
    <_>
      <internalNodes>
        0 -1 14344 -1113893473 -771538560 -805134262 -1928593208
        -1367298556 -624688896 -2105504640 1744830688</internalNodes>
      <leafValues>
        -5.5911964178085327e-01 3.3376872539520264e-01</leafValues></_>
    <_>
      <internalNodes>
        0 -1 15142 -726366037 -1784050251 -16810113 1299681248
        1056100318 -4239882 1996258588 144725005</internalNodes>
      <leafValues>
        -4.1875478625297546e-01 4.9412143230438232e-01</leafValues></_>
    <_>
      <internalNodes>
        0 -1 2114 210437635 -1020884718 -553482749 -1568268283
        -1610415966 -2011168256 1149545097 1187485324</internalNodes>
      <leafValues>
        -6.2974745035171509e-01 3.2041865587234497e-01</leafValues></_>
    <_>
      <internalNodes>
        0 -1 15875 -1858977443 -2130472796 -1860173814 -242233187
        -2140711405 -1996259070 -2096389494 -830252886</internalNodes>
      <leafValues>
        -5.4329967498779297e-01 3.9522102475166321e-01</leafValues></_>
    <_>
      <internalNodes>
        0 -1 16298 295702641 18187072 -1861279725 -2071916031
        -2012821365 -2105360189 -903767799 749830692</internalNodes>
      <leafValues>
        -6.4161193370819092e-01 3.7032616138458252e-01</leafValues></_>
    <_>
      <internalNodes>
        0 -1 20878 -174460204 1707458626 -2009006070 -770866931
        -1069371326 -1879048168 1879736794 25928207</internalNodes>
      <leafValues>
        -4.8592227697372437e-01 4.5847815275192261e-01</leafValues></_></weakClassifiers></stage24>
</opencv_storage>
