<?xml version="1.0"?>
<opencv_storage>
<stage13>
  <maxWeakCount>5</maxWeakCount>
  <stageThreshold>-7.1205019950866699e-01</stageThreshold>
  <weakClassifiers>
    <_>
      <internalNodes>
        0 -1 18295 -1346633733 -1397833794 -1342193665 -1393623300
        -1090519042 -1359167746 -1124155482 -1125322776</internalNodes>
      <leafValues>
        -5.6944441795349121e-01 7.1093750000000000e-01</leafValues></_>
    <_>
      <internalNodes>
        0 -1 13474 792600063 -3 -1073856801 -2097411 -1107405228
        -1074270337 -1074289456 -3080714</internalNodes>
      <leafValues>
        -5.6215900182723999e-01 6.6462922096252441e-01</leafValues></_>
    <_>
      <internalNodes>
        0 -1 11616 -180792193 -775914401 -1592725451 -229630244
        -1896261803 -336713213 -555237356 -24964880</internalNodes>
      <leafValues>
        -6.9042283296585083e-01 5.5576455593109131e-01</leafValues></_>
    <_>
      <internalNodes>
        0 -1 18760 -1709965889 -2138512335 -1530626157 -2138771856
        -1207222132 -1905806142 537871773 -1934726919</internalNodes>
      <leafValues>
        -6.8477702140808105e-01 4.8068356513977051e-01</leafValues></_>
    <_>
      <internalNodes>
        0 -1 6904 -1355743265 803864358 -16602 -1884029068 -1074135043
        -30556314 -8732860 -11927693</internalNodes>
      <leafValues>
        -5.4327327013015747e-01 6.2929254770278931e-01</leafValues></_></weakClassifiers></stage13>
</opencv_storage>
