<?xml version="1.0"?>
<opencv_storage>
<stage33>
  <maxWeakCount>9</maxWeakCount>
  <stageThreshold>-9.0227937698364258e-01</stageThreshold>
  <weakClassifiers>
    <_>
      <internalNodes>
        0 -1 14392 39474556 -1346371848 -2 -189298949 -848142721
        -1090519041 -1551958018 2008981367</internalNodes>
      <leafValues>
        -3.9770114421844482e-01 4.9184548854827881e-01</leafValues></_>
    <_>
      <internalNodes>
        0 -1 13096 -904228648 -889124863 1095241995 -1927872379 139298
        -1995923423 -2111602021 839881235</internalNodes>
      <leafValues>
        -5.0419652462005615e-01 3.5665166378021240e-01</leafValues></_>
    <_>
      <internalNodes>
        0 -1 16600 19943580 197329046 -1861513216 -880293624 -1073700659
        -1315930112 -1995701374 549093890</internalNodes>
      <leafValues>
        -6.1184895038604736e-01 3.3275976777076721e-01</leafValues></_>
    <_>
      <internalNodes>
        0 -1 16223 -1071922494 -1734490739 16941079 1359153483 545292714
        -1879013750 1384320138 349358751</internalNodes>
      <leafValues>
        -4.4235739111900330e-01 4.1497525572776794e-01</leafValues></_>
    <_>
      <internalNodes>
        0 -1 15095 -1966925863 -599375614 -2147439383 -805021184
        -2147378935 -670793727 -1995905013 -1633152862</internalNodes>
      <leafValues>
        -5.3286373615264893e-01 3.5069647431373596e-01</leafValues></_>
    <_>
      <internalNodes>
        0 -1 1330 -964639772 -735045604 1098973204 -997818295 -527908414
        -2109702144 -532481790 455839882</internalNodes>
      <leafValues>
        -5.3203415870666504e-01 3.8375306129455566e-01</leafValues></_>
    <_>
      <internalNodes>
        0 -1 1165 -1054875362 1141118029 335647190 -2008284897
        -731471643 -1996322784 -1882242468 1619976710</internalNodes>
      <leafValues>
        -4.5921868085861206e-01 4.4188871979713440e-01</leafValues></_>
    <_>
      <internalNodes>
        0 -1 9994 -798219589 1793956089 -1694663402 -697049218
        1996363640 251649213 1342054099 -712180650</internalNodes>
      <leafValues>
        -4.4883438944816589e-01 4.7792461514472961e-01</leafValues></_>
    <_>
      <internalNodes>
        0 -1 2318 -804157500 68333622 -2058978859 83984409 1074471480
        8192 1192505352 -389658557</internalNodes>
      <leafValues>
        -5.6400102376937866e-01 3.9282053709030151e-01</leafValues></_></weakClassifiers></stage33>
</opencv_storage>
